tree
version=v2
num_class=1
num_tree_per_iteration=1
label_index=0
max_feature_idx=13
objective=binary sigmoid:1
feature_names=Team Home Opp_Name Opp OFF1stD OFFPassY OFFRushY TOOFF DEFTotYd DEFRushY TODEF OffenseEP DefenseEP Sp_TmsEP
feature_infos=17:27:24:2:3:5:12:16:18:19:21:23:25:28 [0:1] 15:17:27:30:10:19:29:2:5:6:8:9:12:14:26 [3:59] [12:33] [106:445] [17:266] [0:4] [175:643] [31:269] [0:5] [-12.66:37.990000000000002] [-42.689999999999998:24.629999999999999] [-19.32:11.57]
tree_sizes=705 702 701 708 708 713 715 724 712 719 711 717 715 700 710 717 710 720 709 711 705 644 715 712 716 715 714 717 715 719 640 636 727 718 719 640 717 713 719 723 717 721 740 718 644 638 718 734 642 719 711 641 716 670 567 722 568 714 725 717 639 720 741 720 725 725 716 727 713 719 590 721 569 717 640 721 713 668 645 723 720 726 736 726 635 722 721 721 714 726 747 722 570 722

Tree=0
num_leaves=8
num_cat=0
split_feature=3 11 11 12 11 12 3
split_gain=357.472 149.778 130.996 45.0739 40.5094 39.4146 30.127
threshold=22.500000000000004 15.415000000000001 -6.2349999999999985 -20.584999999999997 0.73000000000000009 8.4850000000000012 18.500000000000004
decision_type=2 2 2 2 2 2 2
left_child=2 4 5 -3 -2 -1 -4
right_child=1 3 6 -5 -6 -7 -8
leaf_value=-0.31933862710157063 -0.36016701389543154 -0.21335245824986807 0.37167847229088796 0.29648876562646409 -0.15758814660799847 0.18665985644849337 0.16151288344845019
leaf_count=78 310 36 387 121 322 36 152
internal_value=0 -0.905927 1.0946 0.842433 -1.34025 -0.853227 1.50658
internal_count=1442 789 653 157 632 114 539
shrinkage=1


Tree=1
num_leaves=8
num_cat=0
split_feature=3 11 12 11 12 12 10
split_gain=246.99 126.133 79.8877 74.5097 26.4417 22.6589 13.3545
threshold=25.000000000000004 0.73000000000000009 6.1800000000000006 15.415000000000001 -9.9399999999999977 -20.584999999999997 2.5000000000000004
decision_type=2 2 2 2 2 2 2
left_child=1 2 -1 6 -3 -5 -2
right_child=3 4 -4 5 -6 -7 -8
leaf_value=-0.23685851568892491 -0.2846060336205179 0.033940428915765278 0.18979007230401782 -0.18176573147290356 0.2980806499566177 0.198301295280673 -0.032839652758831599
leaf_count=180 451 71 120 36 460 87 37
internal_value=0 0.7197 -0.33047 -0.973112 1.3119 0.431156 -1.3271
internal_count=1442 831 300 611 531 123 488
shrinkage=0.2


Tree=2
num_leaves=8
num_cat=0
split_feature=3 11 11 3 10 10 6
split_gain=172.75 107.772 49.9897 49.8673 34.8648 14.7349 5.73275
threshold=18.500000000000004 7.7900000000000009 -7.9999999999999991 30.500000000000004 2.5000000000000004 2.5000000000000004 107.00000000000001
decision_type=2 2 2 2 2 2 2
left_child=2 4 5 -3 -2 -1 -4
right_child=1 3 6 -5 -6 -7 -8
leaf_value=-0.30529591803497547 -0.24064432048471351 0.18639424059353088 0.18936510631938214 -0.1162725265988097 0.084540307071551871 0.21565540360039398 0.29670102370636475
leaf_count=37 538 240 126 147 61 12 281
internal_value=0 -0.478933 1.07006 0.35859 -1.03214 -0.88154 1.31571
internal_count=1442 986 456 387 599 49 407
shrinkage=0.2


Tree=3
num_leaves=8
num_cat=0
split_feature=3 11 11 12 12 11 6
split_gain=128.171 69.3836 49.2779 33.7083 31.6196 15.2379 3.82227
threshold=25.000000000000004 -3.6349999999999993 20.955000000000002 8.4850000000000012 -0.62999999999999989 2.0650000000000004 124.50000000000001
decision_type=2 2 2 2 2 2 2
left_child=1 3 5 -1 -3 -2 -4
right_child=2 4 6 -5 -6 -7 -8
leaf_value=-0.23137635910216772 -0.26099635967803153 0.075999248871446767 0.11031515256601776 0.1471915185498972 0.26700692569699996 -0.12012100227350955 0.33323401105298966
leaf_count=133 270 284 24 60 354 288 29
internal_value=0 0.54825 -0.733521 -0.555729 0.892048 -0.924306 1.16443
internal_count=1442 831 611 193 638 558 53
shrinkage=0.2


Tree=4
num_leaves=8
num_cat=0
split_feature=3 11 10 11 12 10 6
split_gain=90.5518 67.5456 33.0941 30.0641 26.6901 8.68848 5.2951
threshold=18.500000000000004 12.670000000000002 1.5000000000000002 -7.9999999999999991 -16.174999999999997 2.5000000000000004 107.00000000000001
decision_type=2 2 2 2 2 2 2
left_child=3 2 -2 5 -3 -1 -5
right_child=1 4 -4 6 -6 -7 -8
leaf_value=-0.25378510110330249 -0.19819202798228264 -0.049481040347607044 0.00136203384707443 0.14019304562435753 0.23321479729428529 0.16642102952656404 0.25190243793139327
leaf_count=37 523 97 218 126 148 12 281
internal_value=0 -0.351135 -0.686709 0.859203 0.596646 -0.736321 1.07531
internal_count=1442 986 741 456 245 49 407
shrinkage=0.2


Tree=5
num_leaves=8
num_cat=0
split_feature=3 11 11 12 12 12 12
split_gain=71.9623 38.8468 37.6619 23.2667 16.0014 15.4601 11.7931
threshold=23.500000000000004 0.73000000000000009 12.670000000000002 8.4850000000000012 -20.584999999999997 -0.62999999999999989 -9.9399999999999977
decision_type=2 2 2 2 2 2 2
left_child=1 3 5 -1 -4 -2 -3
right_child=2 6 4 -5 -6 -7 -8
leaf_value=-0.13066071531462681 -0.19252979061925835 -0.031923514989765929 -0.15036037809038019 0.15222186591278472 0.13153941726783888 0.0521869965857788 0.21160238283881225
leaf_count=165 469 38 47 91 144 58 430
internal_value=0 0.52032 -0.491358 -0.166233 0.299308 -0.822079 0.932212
internal_count=1442 724 718 256 191 527 468
shrinkage=0.2


Tree=6
num_leaves=8
num_cat=0
split_feature=12 11 11 12 13 10 11
split_gain=55.2921 62.2099 52.7713 27.6481 14.953 6.6115 4.83808
threshold=-0.62999999999999989 7.7900000000000009 -7.9999999999999991 -13.279999999999999 5.2100000000000009 2.5000000000000004 0.73000000000000009
decision_type=2 2 2 2 2 2 2
left_child=1 4 5 -3 -1 -2 -4
right_child=2 3 6 -5 -6 -7 -8
leaf_value=-0.22952058404259712 -0.24204249151689849 -0.071136338420501932 0.13731385119800985 0.16116882908669145 -0.039579451709407874 0.021259593918263507 0.24528993332353682
leaf_count=376 74 171 136 232 128 25 300
internal_value=0 -0.330455 0.635041 0.291723 -0.911984 -0.844971 1.0288
internal_count=1442 907 535 403 504 99 436
shrinkage=0.2


Tree=7
num_leaves=8
num_cat=0
split_feature=6 10 12 11 7 11 13
split_gain=45.2359 22.3347 20.8116 20.2132 18.7673 17.1375 5.5457
threshold=110.00000000000001 1.0000000180025095e-35 -6.964999999999999 12.670000000000002 1.0000000180025095e-35 -7.9999999999999991 -0.084999999999999992
decision_type=2 2 2 2 2 2 2
left_child=1 6 3 -2 -3 -4 -1
right_child=2 4 5 -5 -6 -7 -8
leaf_value=-0.27733275321798517 -0.14240591891149534 0.13443924268767976 -0.1646040308527979 0.11911260212568671 -0.076962326749491564 0.19472115447125554 -0.12708795832239903
leaf_count=117 131 122 33 118 397 410 114
internal_value=0 -0.399516 0.461154 -0.0471397 -0.128075 0.818455 -1.02887
internal_count=1442 750 692 249 519 443 231
shrinkage=0.2


Tree=8
num_leaves=8
num_cat=0
split_feature=9 11 3 11 10 3 11
split_gain=38.9796 22.1954 17.4706 24.6079 16.8875 7.43398 6.74693
threshold=110.50000000000001 -7.9999999999999991 28.500000000000004 6.6450000000000005 1.0000000180025095e-35 15.000000000000002 20.955000000000002
decision_type=2 2 2 2 2 2 2
left_child=1 5 3 -2 -3 -1 -4
right_child=2 4 6 -5 -6 -7 -8
leaf_value=0.11147637944338418 -0.10680374376983569 -0.030310001161753749 -0.20080379792620931 0.1396018172210213 0.15834893253235324 -0.23606254256921033 0.095645491606341462
leaf_count=16 267 149 266 149 509 71 15
internal_value=0 0.407197 -0.408798 -0.099602 0.56559 -0.78018 -0.895204
internal_count=1442 745 697 416 658 87 281
shrinkage=0.2


Tree=9
num_leaves=8
num_cat=0
split_feature=12 11 11 13 13 10 13
split_gain=31.3492 37.9321 25.5822 24.2964 5.63646 5.48321 4.69536
threshold=-0.62999999999999989 3.0900000000000003 -7.9999999999999991 -5.4799999999999995 -8.7899999999999974 2.5000000000000004 6.0100000000000007
decision_type=2 2 2 2 2 2 2
left_child=1 6 5 -3 -4 -2 -1
right_child=2 3 4 -5 -6 -7 -8
leaf_value=-0.22974736979772678 -0.19719904080204109 -0.23797286576353782 -0.036761629934821093 0.057159631909207177 0.18845075908101611 0.052779677856695517 -0.087967158750443086
leaf_count=284 74 67 35 468 401 25 88
internal_value=0 -0.262284 0.535505 0.0954273 0.847117 -0.581425 -0.972484
internal_count=1442 907 535 535 436 99 372
shrinkage=0.2


Tree=10
num_leaves=8
num_cat=0
split_feature=12 11 11 13 12 13 6
split_gain=27.1751 35.5579 21.685 21.5287 20.5166 9.0242 2.80671
threshold=-11.924999999999999 0.73000000000000009 20.955000000000002 1.0900000000000003 8.4850000000000012 5.2100000000000009 141.50000000000003
decision_type=2 2 2 2 2 2 2
left_child=2 4 5 -3 -2 -1 -4
right_child=1 3 6 -5 -6 -7 -8
leaf_value=-0.20674774903335519 -0.13749079949992138 0.069312949905482119 0.083557685831803438 0.29475422597439843 0.13589310217659947 -0.023406703885936679 0.30647068379449027
leaf_count=258 324 467 28 156 95 95 19
internal_value=0 0.23565 -0.543895 0.641307 -0.357694 -0.786997 0.847008
internal_count=1442 1042 400 623 419 353 47
shrinkage=0.2


Tree=11
num_leaves=8
num_cat=0
split_feature=10 11 12 11 3 13 5
split_gain=23.8795 19.347 20.2477 9.91589 6.33025 5.32677 2.54713
threshold=1.0000000180025095e-35 -7.9999999999999991 -2.3099999999999996 20.955000000000002 13.500000000000002 -2.3549999999999995 330.50000000000006
decision_type=2 2 2 2 2 2 2
left_child=3 4 -3 5 -2 -1 -5
right_child=1 2 -4 6 -6 -7 -8
leaf_value=-0.23902789856728379 0.14206534689236702 0.0034131626095029797 0.16614977681073925 0.31934851731637443 -0.1837617722042274 -0.096672723275429473 0.03446282639987594
leaf_count=101 17 442 444 13 149 259 17
internal_value=0 0.211464 0.357548 -0.561113 -0.696287 -0.697962 0.753363
internal_count=1442 1052 886 390 166 360 30
shrinkage=0.2


Tree=12
num_leaves=8
num_cat=0
split_feature=6 10 12 13 13 13 9
split_gain=20.2173 11.3723 9.78423 9.48412 9.28698 6.00231 2.55761
threshold=107.00000000000001 2.5000000000000004 -20.584999999999997 -0.084999999999999992 -5.4799999999999995 4.7300000000000013 143.50000000000003
decision_type=2 2 2 2 2 2 2
left_child=1 3 6 -1 -4 -3 -2
right_child=2 5 4 -5 -6 -7 -8
leaf_value=-0.16654201081103803 -0.02849886928845094 0.036875272703641458 -0.053481334395661988 -0.031475838835014869 0.1159695947929807 0.36125935233398643 -0.26084007957357924
leaf_count=270 20 75 127 350 555 16 29
internal_value=0 -0.316503 0.330565 -0.457082 0.425723 0.503161 -0.757032
internal_count=1442 711 731 620 682 91 49
shrinkage=0.2


Tree=13
num_leaves=8
num_cat=0
split_feature=11 12 12 13 11 10 11
split_gain=19.0905 18.6285 17.7443 18.6088 10.4276 8.75388 7.72901
threshold=3.0900000000000003 8.4850000000000012 -16.174999999999997 2.9950000000000006 20.955000000000002 2.5000000000000004 -11.565
decision_type=2 2 2 2 2 2 2
left_child=1 5 4 -4 -2 -1 -3
right_child=2 6 3 -5 -6 -7 -8
leaf_value=-0.15412866588645963 -0.14686992944994043 -0.085726727694060589 0.05912475114920112 0.31923122201277759 0.1375981489639431 0.052894818738776272 0.22819704004941085
leaf_count=489 134 23 521 95 34 52 94
internal_value=0 -0.379984 0.264935 0.501563 -0.406814 -0.613545 0.643218
internal_count=1442 658 784 616 168 541 117
shrinkage=0.2


Tree=14
num_leaves=8
num_cat=0
split_feature=11 12 7 13 3 9 12
split_gain=17.3313 21.6462 17.4248 16.8478 12.9064 9.72456 2.46519
threshold=12.670000000000002 -2.3099999999999996 2.5000000000000004 3.7650000000000001 30.500000000000004 98.500000000000014 -17.944999999999997
decision_type=2 2 2 2 2 2 2
left_child=1 3 -3 -1 6 -6 -2
right_child=4 2 -4 -5 5 -7 -8
leaf_value=-0.18149219279911796 0.037847448927858164 0.1127988389124433 -0.14217607307130661 0.020827538413897277 0.17014852697223978 -0.14131593427823838 0.20123636997294786
leaf_count=374 21 406 98 198 32 64 249
internal_value=0 -0.189464 0.260084 -0.555346 0.507042 -0.172665 0.894256
internal_count=1442 1076 504 572 366 96 270
shrinkage=0.2


Tree=15
num_leaves=8
num_cat=0
split_feature=11 12 13 13 12 7 13
split_gain=14.5562 16.7503 14.4307 11.1307 9.08437 4.07326 3.88243
threshold=-3.6349999999999993 -8.9599999999999991 -0.40499999999999997 5.2100000000000009 8.4850000000000012 2.5000000000000004 3.7650000000000001
decision_type=2 2 2 2 2 2 2
left_child=4 3 -3 -2 6 -6 -1
right_child=1 2 -4 -5 5 -7 -8
leaf_value=-0.23809955646121464 -0.091260551619550601 0.020111594338071231 0.19952945798572799 0.11398434636689921 0.19337362400131106 -0.08081160488535194 -0.087244912425247539
leaf_count=179 337 390 271 80 39 22 124
internal_value=0 0.150181 0.47175 -0.232882 -0.563363 0.326786 -0.845276
internal_count=1442 1078 661 417 364 61 303
shrinkage=0.2


Tree=16
num_leaves=8
num_cat=0
split_feature=11 12 13 11 3 9 6
split_gain=14.0093 16.139 13.3962 8.692 6.22745 5.30607 1.00169
threshold=15.415000000000001 -0.62999999999999989 5.2100000000000009 0.73000000000000009 28.500000000000004 98.500000000000014 97.000000000000014
decision_type=2 2 2 2 2 2 2
left_child=1 2 -1 -3 6 -6 -2
right_child=4 3 -4 -5 5 -7 -8
leaf_value=-0.12590284182314193 0.1292645517740971 -0.00075584339320845361 0.05759873294975798 0.17830256833869057 0.17685742502213722 -0.059798231388561746 0.23171862100703711
leaf_count=546 39 235 158 228 34 56 146
internal_value=0 -0.147114 -0.404127 0.327096 0.574697 0.132019 0.991643
internal_count=1442 1167 704 463 275 90 185
shrinkage=0.2


Tree=17
num_leaves=8
num_cat=0
split_feature=11 12 12 13 13 6 13
split_gain=12.4556 13.1414 11.3299 10.0862 10.0612 9.26491 5.90202
threshold=6.6450000000000005 1.4350000000000003 -8.9599999999999991 5.2100000000000009 -5.4799999999999995 97.000000000000014 -3.9599999999999995
decision_type=2 2 2 2 2 2 2
left_child=1 3 5 -1 -4 -2 -3
right_child=2 6 4 -5 -6 -7 -8
leaf_value=-0.17265618126063512 -0.12429182906105132 -0.10057484514054976 -0.018806641128903859 0.014720669415772171 0.22839513016909507 0.065271506072261412 0.099856500576142454
leaf_count=387 104 67 96 134 252 174 228
internal_value=0 -0.261948 0.297967 -0.565744 0.761935 -0.0276048 0.250108
internal_count=1442 816 626 521 348 278 295
shrinkage=0.2


Tree=18
num_leaves=8
num_cat=0
split_feature=9 13 11 10 11 3 6
split_gain=10.5839 10.8657 8.98233 6.21626 7.42907 6.2095 3.93101
threshold=128.50000000000003 -5.4799999999999995 -3.6349999999999993 1.5000000000000002 -1.2299999999999998 13.500000000000002 124.50000000000001
decision_type=2 2 2 2 2 2 2
left_child=1 5 -3 6 -5 -1 -2
right_child=3 2 -4 4 -6 -7 -8
leaf_value=0.21343419898882776 -0.164593879575061 -0.063481138063486084 0.10054901615473966 -0.14122341302776048 0.12575264356063975 -0.15003509246472646 -0.016207626581881292
leaf_count=40 262 179 623 53 91 111 83
internal_value=0 0.190344 0.339778 -0.3631 0.119791 -0.527197 -0.608613
internal_count=1442 953 802 489 144 151 345
shrinkage=0.2


Tree=19
num_leaves=8
num_cat=0
split_feature=10 3 11 11 13 6 4
split_gain=9.84488 8.71738 10.0236 5.07139 4.3699 2.80524 0.190403
threshold=1.0000000180025095e-35 35.000000000000007 7.7900000000000009 1.2800000000000002 -1.8799999999999997 141.50000000000003 17.500000000000004
decision_type=2 2 2 2 2 2 2
left_child=3 2 -2 6 -5 -3 -1
right_child=1 5 -4 4 -6 -7 -8
leaf_value=-0.23721298519201245 -0.0011402704397802 -0.20576015541968018 0.1292085780193605 -0.1424037172125984 0.011748411017857801 0.097230292002338098 -0.17936091767718965
leaf_count=83 565 82 391 89 149 14 69
internal_value=0 0.157944 0.242835 -0.41724 -0.225808 -0.783809 -1.06455
internal_count=1442 1052 956 390 238 96 152
shrinkage=0.2


Tree=20
num_leaves=8
num_cat=0
split_feature=12 11 13 11 13 8 13
split_gain=8.68019 10.4424 13.6442 5.25859 4.31766 3.48992 0.999228
threshold=6.1800000000000006 -1.2299999999999998 -5.4799999999999995 -11.565 5.2100000000000009 281.50000000000006 -3.9599999999999995
decision_type=2 2 2 2 2 2 2
left_child=1 4 -3 5 -1 -2 -5
right_child=3 2 -4 6 -6 -7 -8
leaf_value=-0.19885907036537057 -0.22612079642143806 -0.16622228331075228 0.040339735707094967 0.11715907558383626 -0.028638083568812641 0.0985427168378466 0.22060625863374694
leaf_count=250 16 106 707 96 97 17 153
internal_value=0 -0.0993834 0.0460342 0.598041 -0.67258 -0.259023 0.892878
internal_count=1442 1160 813 282 347 33 249
shrinkage=0.2


Tree=21
num_leaves=7
num_cat=0
split_feature=11 12 13 13 3 12
split_gain=8.06903 11.7948 12.405 3.29597 1.65904 0.532109
threshold=20.955000000000002 -16.174999999999997 3.7650000000000001 5.2100000000000009 37.500000000000007 -18.304999999999996
decision_type=2 2 2 2 2 2
left_child=1 3 -3 -1 5 -2
right_child=4 2 -4 -5 -6 -7
leaf_value=-0.20266774939838472 0.13334593606154962 -0.024405429633911291 0.13532844112644934 -0.045323069321959092 0.0082597901653138871 0.23213070116348053
leaf_count=156 19 866 238 63 13 87
internal_value=0 -0.0716628 0.0669002 -0.723573 0.792998 0.980591
internal_count=1442 1323 1104 219 119 106
shrinkage=0.2


Tree=22
num_leaves=8
num_cat=0
split_feature=9 13 11 11 4 12 8
split_gain=7.6096 7.46079 7.11191 5.76994 5.38907 7.57891 1.04756
threshold=116.50000000000001 -0.084999999999999992 11.470000000000001 -7.9999999999999991 14.500000000000002 2.6000000000000005 339.50000000000006
decision_type=2 2 2 2 2 2 2
left_child=1 2 -1 -3 6 -6 -2
right_child=4 3 -4 -5 5 -7 -8
leaf_value=-0.086225281593329595 -0.33897886454086595 -0.084901917959438647 0.082812705633071429 0.13963902055474528 -0.058853285811350756 0.16772907634844036 -0.16806701245981412
leaf_count=264 25 66 179 304 458 73 73
internal_value=0 0.207337 -0.0850623 0.534647 -0.262121 -0.154931 -1.0733
internal_count=1442 813 443 370 629 531 98
shrinkage=0.2


Tree=23
num_leaves=8
num_cat=0
split_feature=12 11 7 13 6 13 11
split_gain=7.63361 9.6085 8.0255 7.81399 6.02663 4.94283 4.09143
threshold=-2.3099999999999996 12.670000000000002 2.5000000000000004 2.5300000000000007 110.00000000000001 -5.4799999999999995 -1.2299999999999998
decision_type=2 2 2 2 2 2 2
left_child=1 3 6 -1 -4 -3 -2
right_child=2 5 4 -5 -6 -7 -8
leaf_value=-0.15669276598547849 0.032462382996912856 -0.10726899161512177 -0.23506631198029646 -0.0077109214399296412 0.05535035322889334 0.092706846910718385 0.165078386461319
leaf_count=319 164 34 57 253 43 205 367
internal_value=0 -0.17759 0.314261 -0.424147 -0.419194 0.266844 0.536239
internal_count=1442 811 631 572 100 239 531
shrinkage=0.2


Tree=24
num_leaves=8
num_cat=0
split_feature=12 13 11 11 11 13 12
split_gain=7.13412 7.50991 10.8299 7.2175 6.06885 5.15475 2.6319
threshold=-10.769999999999998 4.0450000000000008 6.6450000000000005 17.025000000000002 -6.2349999999999985 2.9950000000000006 -20.584999999999997
decision_type=2 2 2 2 2 2 2
left_child=3 2 -2 5 -3 -1 -5
right_child=1 4 -4 6 -6 -7 -8
leaf_value=-0.19802313854820039 -0.056280246220489043 -0.0086204351545239692 0.10642440641056823 -0.05735849504404749 0.25153779033752272 -0.039171245794189263 0.11845889872347173
leaf_count=190 479 56 355 32 101 162 67
internal_value=0 0.173222 0.0314713 -0.31091 0.797756 -0.571992 0.271444
internal_count=1442 991 834 451 157 352 99
shrinkage=0.2


Tree=25
num_leaves=8
num_cat=0
split_feature=10 11 12 12 4 3 9
split_gain=6.79352 6.36269 7.63566 4.4183 3.45814 3.31462 1.19838
threshold=2.5000000000000004 0.73000000000000009 -6.964999999999999 1.4350000000000003 14.500000000000002 25.000000000000004 116.50000000000001
decision_type=2 2 2 2 2 2 2
left_child=1 3 -3 -1 6 -6 -2
right_child=4 2 -4 -5 5 -7 -8
leaf_value=-0.16423926393373489 0.051492832766507228 -0.037316528330199689 0.094929939137276376 -0.010602022228424934 0.20679107638947572 0.036239954879673117 -0.19067616395796952
leaf_count=318 12 394 356 138 165 46 13
internal_value=0 -0.104933 0.0499639 -0.490463 0.505379 0.672913 -0.432634
internal_count=1442 1206 750 456 236 211 25
shrinkage=0.2


Tree=26
num_leaves=8
num_cat=0
split_feature=13 12 11 11 12 11 4
split_gain=5.4985 7.85895 7.82972 7.63582 6.34905 2.56309 0.995888
threshold=-3.4699999999999993 -20.584999999999997 6.6450000000000005 20.955000000000002 8.4850000000000012 19.290000000000003 29.500000000000004
decision_type=2 2 2 2 2 2 2
left_child=3 5 -3 4 -1 -2 -5
right_child=1 2 -4 6 -6 -7 -8
leaf_value=-0.15788090658860893 -0.21159322079481294 -0.0036857399328636348 0.12254673240549632 0.24342120427866831 0.1138841480271307 0.0028436652787855107 0.053985283971979797
leaf_count=217 94 625 350 40 77 18 21
internal_value=0 0.119934 0.221058 -0.368038 -0.577038 -0.709992 0.823982
internal_count=1442 1087 975 355 294 112 61
shrinkage=0.2


Tree=27
num_leaves=8
num_cat=0
split_feature=12 11 13 11 13 5 5
split_gain=5.04677 6.31602 8.81029 2.85472 2.4354 2.2364 0.706363
threshold=6.1800000000000006 -6.2349999999999985 5.2100000000000009 -6.2349999999999985 1.0000000180025095e-35 270.50000000000006 330.50000000000006
decision_type=2 2 2 2 2 2 2
left_child=1 5 -3 4 -2 -1 -5
right_child=3 2 -4 6 -6 -7 -8
leaf_value=-0.20474317924169061 -0.097569694203889779 -0.029385599172055757 0.1277180163460111 0.20814682844882451 0.12166671973995823 0.11077660264699181 0.01728274376077361
leaf_count=204 29 810 126 204 30 20 19
internal_value=0 -0.0806154 -0.00318279 0.518161 0.100281 -0.857273 0.938435
internal_count=1442 1160 936 282 59 224 223
shrinkage=0.2


Tree=28
num_leaves=8
num_cat=0
split_feature=12 11 13 7 13 4 13
split_gain=5.005 6.88037 8.26544 6.61138 4.45642 4.34397 3.64976
threshold=-5.9799999999999995 10.630000000000001 2.9950000000000006 2.5000000000000004 -0.084999999999999992 16.500000000000004 -8.7899999999999974
decision_type=2 2 2 2 2 2 2
left_child=1 2 -1 6 -3 -5 -2
right_child=3 4 -4 5 -6 -7 -8
leaf_value=-0.21724348065449606 -0.095874975286698888 -0.0428880326407695 -0.01250021363771766 -0.29343673323125419 0.10751022687214484 -0.017041652980400473 0.09924170361796511
leaf_count=222 42 134 187 39 121 95 602
internal_value=0 -0.191925 -0.519545 0.21949 0.138515 -0.440583 0.400623
internal_count=1442 664 409 778 255 134 644
shrinkage=0.2


Tree=29
num_leaves=8
num_cat=0
split_feature=12 13 11 6 11 11 3
split_gain=4.94654 5.98198 8.46313 4.83818 4.63675 3.27083 0.925876
threshold=-16.174999999999997 -2.3549999999999995 6.6450000000000005 97.000000000000014 15.415000000000001 19.290000000000003 30.500000000000004
decision_type=2 2 2 2 2 2 2
left_child=3 4 -3 6 -2 -5 -1
right_child=1 2 -4 5 -6 -7 -8
leaf_value=-0.12092160317914209 -0.092446560764968211 0.0068714089896650902 0.16737002508237814 -0.077729580636024309 0.089568799396697873 0.1291709892411087 -0.24993567668596062
leaf_count=32 298 530 254 100 107 31 90
internal_value=0 0.100525 0.282059 -0.418267 -0.253017 -0.042877 -0.981259
internal_count=1442 1189 784 253 405 131 122
shrinkage=0.2


Tree=30
num_leaves=7
num_cat=0
split_feature=3 13 5 6 11 5
split_gain=4.30174 5.23843 6.67894 4.8589 2.31673 1.17162
threshold=35.000000000000007 5.2100000000000009 270.50000000000006 110.00000000000001 20.955000000000002 361.50000000000006
decision_type=2 2 2 2 2 2
left_child=1 3 -3 -1 5 -2
right_child=4 2 -4 -5 -6 -7
leaf_value=-0.056160440455416454 -0.23130283241317234 0.033244562774481692 0.29662643556392032 0.040177715008086062 0.022099037430771129 -0.03499166351746557
leaf_count=533 140 142 33 558 18 18
internal_value=0 0.0593188 0.529221 -0.0487407 -0.626093 -0.939092
internal_count=1442 1266 175 1091 176 158
shrinkage=0.2


Tree=31
num_leaves=7
num_cat=0
split_feature=12 11 12 13 11 13
split_gain=4.41843 5.22442 5.18456 3.62961 2.46902 0.255608
threshold=8.4850000000000012 3.0900000000000003 -5.8149999999999986 -8.7899999999999974 -11.565 -6.7049999999999992
decision_type=2 2 2 2 2 2
left_child=1 3 -3 -1 -2 -6
right_child=4 2 -4 -5 5 -7
leaf_value=-0.38145649167796075 -0.0039918267873792187 -0.013338029903252575 0.11386670758366207 -0.061307175802168781 0.14048062018604751 0.22644199524099828
leaf_count=15 23 416 265 526 45 152
internal_value=0 -0.0652664 0.102173 -0.372583 0.624271 0.998935
internal_count=1442 1222 681 541 220 197
shrinkage=0.2


Tree=32
num_leaves=8
num_cat=0
split_feature=10 1 7 12 11 9 8
split_gain=3.98706 4.05285 4.22026 4.16673 2.85999 2.61984 0.199392
threshold=1.0000000180025095e-35 1.0000000180025095e-35 1.0000000180025095e-35 -20.584999999999997 1.2800000000000002 98.500000000000014 281.50000000000006
decision_type=2 2 2 2 2 2 2
left_child=4 2 -2 -3 6 -6 -1
right_child=1 3 -4 -5 5 -7 -8
leaf_value=-0.12824591277864586 0.081901664223448203 -0.18074472717699913 -0.060014859015602787 0.087534723186875552 0.044674775344304814 -0.088231108813348405 -0.22379367871902153
leaf_count=26 150 31 382 489 88 150 126
internal_value=0 0.115597 -0.100755 0.35069 -0.313958 -0.17519 -1.00911
internal_count=1442 1052 532 520 390 238 152
shrinkage=0.2


Tree=33
num_leaves=8
num_cat=0
split_feature=13 9 1 11 11 12 9
split_gain=3.97592 4.41419 3.5299 3.49546 3.21307 3.30831 0.974801
threshold=-5.4799999999999995 110.50000000000001 1.0000000180025095e-35 6.6450000000000005 20.955000000000002 6.1800000000000006 105.50000000000001
decision_type=2 2 2 2 2 2 2
left_child=4 2 -2 -3 5 -1 -6
right_child=1 3 -4 -5 6 -7 -8
leaf_value=-0.17864891781851133 0.0019012409516073786 -0.071282779495975765 0.11563736569706531 0.039799118518960779 0.23367771151107722 0.055086632455766477 -0.048934674741683011
leaf_count=100 297 413 324 212 21 63 12
internal_value=0 0.079741 0.308364 -0.132711 -0.458523 -0.633391 0.67825
internal_count=1442 1246 621 625 196 163 33
shrinkage=0.2


Tree=34
num_leaves=8
num_cat=0
split_feature=12 11 13 12 13 11 5
split_gain=3.85985 4.5072 4.46968 3.14838 3.04187 5.59594 1.69508
threshold=-0.62999999999999989 12.670000000000002 -0.40499999999999997 -18.304999999999996 3.7650000000000001 -3.6349999999999993 129.00000000000003
decision_type=2 2 2 2 2 2 2
left_child=1 2 -1 -3 5 -2 -6
right_child=4 3 -4 -5 6 -7 -8
leaf_value=-0.15363677820949997 -0.089268949996494429 -0.045043866243550959 -0.021211656570522871 0.098369645981045639 -0.06540499293859986 0.10466491401220286 0.24411239951816821
leaf_count=214 121 76 432 185 18 337 59
internal_value=0 -0.123604 -0.301937 0.214483 0.298111 0.152232 0.979939
internal_count=1442 907 646 261 535 458 77
shrinkage=0.2


Tree=35
num_leaves=7
num_cat=0
split_feature=12 13 11 11 11 8
split_gain=3.6917 3.9633 5.01652 3.91939 3.8779 3.01282
threshold=-11.924999999999999 4.0450000000000008 15.415000000000001 26.210000000000004 1.0000000180025095e-35 420.00000000000006
decision_type=2 2 2 2 2 2
left_child=3 2 -2 5 -3 -1
right_child=1 4 -4 -5 -6 -7
leaf_value=-0.14412311274367251 -0.01800888250436624 0.037718061716916135 0.17795712016386547 0.22623325796293342 0.25600690366984968 -0.016695621067994344
leaf_count=176 712 94 161 19 75 205
internal_value=0 0.12689 0.0103271 -0.283346 0.608631 -0.370402
internal_count=1442 1042 873 400 169 381
shrinkage=0.2


Tree=36
num_leaves=8
num_cat=0
split_feature=13 12 11 11 3 8 8
split_gain=3.54543 3.51485 6.43488 5.77374 1.89541 2.37974 0.000102086
threshold=-5.4799999999999995 -6.964999999999999 -1.2299999999999998 12.670000000000002 13.500000000000002 276.00000000000006 214.50000000000003
decision_type=2 2 2 2 2 2 2
left_child=4 3 -3 -2 6 -6 -1
right_child=1 2 -4 -5 5 -7 -8
leaf_value=0.20797353798864157 -0.082588269869419487 -0.02505015767659682 0.13248087775174974 0.064873857854826356 -0.23435428252508006 -0.053707016399181851 0.20349361044603853
leaf_count=18 397 275 402 172 43 105 30
internal_value=0 0.078303 0.287059 -0.117874 -0.453799 -0.540991 1.02892
internal_count=1442 1246 677 569 196 148 48
shrinkage=0.2


Tree=37
num_leaves=8
num_cat=0
split_feature=12 11 13 4 4 13 11
split_gain=3.39051 3.4801 4.46364 2.27472 0.202178 0.197072 0.0218904
threshold=17.830000000000002 -7.9999999999999991 5.2100000000000009 21.500000000000004 19.500000000000004 -3.4699999999999993 -3.6349999999999993
decision_type=2 2 2 2 2 2 2
left_child=1 3 -3 -1 6 -6 -2
right_child=4 2 -4 -5 5 -7 -8
leaf_value=-0.15774232394854149 0.26943555908039951 -0.014983590647368506 0.10207351208018514 0.16599762736403878 0.20840033395633087 -0.049480777191167967 0.20602575921037261
leaf_count=213 14 1007 149 13 20 12 14
internal_value=0 -0.0288322 0.0330402 -0.616308 1.1567 0.610881 1.30638
internal_count=1442 1382 1156 226 60 32 28
shrinkage=0.2


Tree=38
num_leaves=8
num_cat=0
split_feature=12 11 13 5 11 8 12
split_gain=3.28659 3.25821 4.60871 1.38863 1.30255 1.40694 0.690381
threshold=6.1800000000000006 -6.2349999999999985 -0.084999999999999992 270.50000000000006 -7.9999999999999991 244.00000000000003 8.4850000000000012
decision_type=2 2 2 2 2 2 2
left_child=1 3 -3 -1 5 -2 -6
right_child=4 2 -4 -5 6 -7 -8
leaf_value=-0.19279131686045606 -0.12319034063773851 -0.054051556268448181 0.042588821055225323 0.070293485528947083 0.081945303413094056 0.096699364462774204 0.2151366496920164
leaf_count=204 14 460 476 20 50 29 189
internal_value=0 -0.0675321 -0.0128348 -0.76405 0.496163 0.131781 0.799971
internal_count=1442 1160 936 224 282 43 239
shrinkage=0.2


Tree=39
num_leaves=8
num_cat=0
split_feature=12 11 8 13 13 11 1
split_gain=3.09593 4.57999 3.21181 3.52286 3.2107 2.82903 1.4455
threshold=-2.3099999999999996 0.73000000000000009 347.50000000000006 -8.7899999999999974 2.5300000000000007 -3.6349999999999993 1.0000000180025095e-35
decision_type=2 2 2 2 2 2 2
left_child=1 6 3 -2 -3 -4 -1
right_child=2 4 5 -5 -6 -7 -8
leaf_value=-0.23726083689781463 -0.21028484100330763 -0.038996240541487363 -0.0052672539634947349 0.040178830203740773 0.063903810643370251 0.25020437530301226 -0.064589782450052924
leaf_count=148 36 385 37 479 163 79 115
internal_value=0 -0.129108 0.249856 0.0761896 -0.0261148 0.8144 -0.834491
internal_count=1442 811 631 515 548 116 263
shrinkage=0.2


Tree=40
num_leaves=8
num_cat=0
split_feature=12 13 11 6 11 11 3
split_gain=2.8959 3.16644 5.54464 3.0008 2.14311 2.06895 0.994074
threshold=-16.174999999999997 -3.4699999999999993 10.630000000000001 97.000000000000014 20.955000000000002 19.290000000000003 30.500000000000004
decision_type=2 2 2 2 2 2 2
left_child=3 4 -3 6 -2 -5 -1
right_child=1 2 -4 5 -6 -7 -8
leaf_value=-0.093713470949884137 -0.069889996254208317 0.014030146147394666 0.1840031980255665 -0.070158451081552442 0.14545602427464047 0.10636873952093884 -0.24416191547186578
leaf_count=32 274 669 195 100 51 31 90
internal_value=0 0.0870852 0.213551 -0.352333 -0.243922 -0.0407829 -0.867214
internal_count=1442 1189 864 253 325 131 122
shrinkage=0.2


Tree=41
num_leaves=8
num_cat=0
split_feature=12 11 13 11 13 13 7
split_gain=2.84132 3.21475 4.28018 3.13832 3.72898 2.7676 1.32847
threshold=-8.9599999999999991 6.6450000000000005 5.2100000000000009 3.0900000000000003 6.0100000000000007 -6.7049999999999992 1.0000000180025095e-35
decision_type=2 2 2 2 2 2 2
left_child=3 2 -2 6 -5 -3 -1
right_child=1 5 -4 4 -6 -7 -8
leaf_value=0.12364455669851815 -0.030642471393554211 -0.013461266814793989 0.14816056791980101 -0.047326043964987852 0.13366495585915772 0.1689932687823269 -0.21240050613113232
leaf_count=22 490 70 72 286 44 278 180
internal_value=0 0.149946 -0.00342979 -0.204977 -0.0899762 0.542453 -0.903823
internal_count=1442 910 562 532 330 348 202
shrinkage=0.2


Tree=42
num_leaves=8
num_cat=1
split_feature=2 6 13 3 12 7 11
split_gain=2.70208 3.9555 2.98466 3.15168 2.70167 2.16185 1.55826
threshold=0 154.50000000000003 2.9950000000000006 23.500000000000004 2.6000000000000005 1.5000000000000002 11.470000000000001
decision_type=5 2 2 2 2 2 2
left_child=2 4 6 -4 -2 -3 -1
right_child=1 5 3 -5 -6 -7 -8
leaf_value=-0.19479955168983007 -0.021793240694549017 0.18682663497884525 0.25439271912724903 -0.06582205735764679 0.078802939685568868 -0.0052868232770166869 -0.051411681956462375
leaf_count=131 687 174 22 47 257 52 72
internal_value=0 0.0913281 -0.267297 0.193705 0.00398284 0.649413 -0.684316
internal_count=1442 1170 272 69 944 226 203
cat_boundaries=0 1
cat_threshold=537563140
shrinkage=0.2


Tree=43
num_leaves=8
num_cat=0
split_feature=10 11 9 4 3 12 9
split_gain=2.35912 2.54653 2.67015 1.81459 1.50377 0.849502 0.531769
threshold=2.5000000000000004 -7.9999999999999991 175.50000000000003 14.500000000000002 25.000000000000004 8.4850000000000012 116.50000000000001
decision_type=2 2 2 2 2 2 2
left_child=1 5 -3 6 -5 -1 -2
right_child=3 2 -4 4 -6 -7 -8
leaf_value=-0.21027411490145217 0.026882339555188012 0.0090300911690820631 -0.12045811687610836 0.16919782967981628 0.029234382031815654 -0.042667212271263869 -0.16758041082492606
leaf_count=193 12 885 114 165 46 14 13
internal_value=0 -0.0716315 -0.0210027 0.367019 0.519872 -0.745368 -0.442225
internal_count=1442 1206 999 236 211 207 25
shrinkage=0.2


Tree=44
num_leaves=7
num_cat=0
split_feature=11 3 13 13 13 12
split_gain=2.23783 3.41242 2.96033 0.675767 0.0381533 0.00693294
threshold=26.210000000000004 35.000000000000007 5.2100000000000009 -1.1249999999999998 -6.7049999999999992 -17.944999999999997
decision_type=2 2 2 2 2 2
left_child=1 2 -1 -3 -2 -6
right_child=4 3 -4 -5 5 -7
leaf_value=-0.012361067727882629 0.16960624764129181 -0.067186480063157181 0.085795735244884735 -0.20270055194556902 0.2406858938467806 0.2064732989375222
leaf_count=1052 12 53 174 115 12 24
internal_value=0 -0.023742 0.0314822 -0.742534 1.07674 1.16508
internal_count=1442 1394 1226 168 48 36
shrinkage=0.2


Tree=45
num_leaves=7
num_cat=0
split_feature=12 11 12 7 11 5
split_gain=2.17817 2.78889 3.44042 1.92906 1.68959 0.137288
threshold=8.4850000000000012 3.0900000000000003 -5.8149999999999986 1.0000000180025095e-35 -11.565 316.00000000000006
decision_type=2 2 2 2 2 2
left_child=1 3 -3 -1 -2 -6
right_child=4 2 -4 -5 5 -7
leaf_value=0.055968303763618943 -0.0014260992557294495 -0.012822624605954486 0.10361113440822932 -0.086325256939887157 0.20355910336666319 0.022269447505102943
leaf_count=72 23 416 265 469 182 15
internal_value=0 -0.0472277 0.0854541 -0.309852 0.532654 0.976769
internal_count=1442 1222 681 541 220 197
shrinkage=0.2


Tree=46
num_leaves=8
num_cat=0
split_feature=11 12 13 3 13 13 10
split_gain=2.02158 3.37261 3.2981 1.92939 1.3746 0.764759 0.325094
threshold=17.025000000000002 -18.304999999999996 2.9950000000000006 28.500000000000004 -6.004999999999999 5.2100000000000009 1.0000000180025095e-35
decision_type=2 2 2 2 2 2 2
left_child=1 5 -3 6 -5 -1 -2
right_child=3 2 -4 4 -6 -7 -8
leaf_value=-0.24479536471685362 0.11996032800914128 -0.030799533403682675 0.064622571451078942 -0.1166197837455708 0.065289336940057299 -0.092822578257476154 0.22894361987240455
leaf_count=83 31 797 301 17 57 46 110
internal_value=0 -0.0646321 -0.004076 0.36382 0.086638 -0.832415 0.899934
internal_count=1442 1227 1098 215 74 129 141
shrinkage=0.2


Tree=47
num_leaves=8
num_cat=1
split_feature=2 3 13 12 8 9 5
split_gain=2.00871 2.14733 2.14192 2.37415 1.55214 0.925718 0.0272568
threshold=0 35.000000000000007 11.280000000000003 8.4850000000000012 394.00000000000006 116.50000000000001 238.00000000000003
decision_type=5 2 2 2 2 2 2
left_child=1 4 3 -2 -1 -4 -3
right_child=2 6 5 -5 -6 -7 -8
leaf_value=0.045686771562697501 -0.036651044893281796 -0.12561577308048419 0.28486704496856735 0.10163405844768938 0.17811663032967048 0.051081025633552393 -0.2323499803751603
leaf_count=178 975 12 12 172 67 12 14
internal_value=0 0.2426 -0.0790652 -0.126568 0.487594 0.775193 -1.09773
internal_count=1442 271 1171 1147 245 24 26
cat_boundaries=0 1
cat_threshold=1073760064
shrinkage=0.2


Tree=48
num_leaves=7
num_cat=0
split_feature=6 12 11 9 13 13
split_gain=1.93681 1.86302 2.81618 1.58078 0.820903 0.112513
threshold=217.00000000000003 -20.584999999999997 15.415000000000001 128.50000000000003 -6.7049999999999992 2.5300000000000007
decision_type=2 2 2 2 2 2
left_child=1 3 -3 -1 -2 -6
right_child=4 2 -4 -5 5 -7
leaf_value=-0.032483063764469015 -0.065881144053963253 -0.011951013721552044 0.097887536632583969 -0.23722655701908565 0.20211717650421496 0.30460069686138808
leaf_count=39 14 1052 201 79 44 13
internal_value=0 -0.024174 0.0203452 -0.537998 0.938517 1.24037
internal_count=1442 1371 1253 118 71 57
shrinkage=0.2


Tree=49
num_leaves=8
num_cat=0
split_feature=12 11 13 13 8 4 3
split_gain=1.71858 3.53928 3.10019 2.83218 2.10311 3.15136 1.96447
threshold=-0.62999999999999989 7.7900000000000009 0.29000000000000009 -5.4799999999999995 244.00000000000003 16.500000000000004 15.000000000000002
decision_type=2 2 2 2 2 2 2
left_child=1 2 -1 -3 6 -6 -2
right_child=4 3 -4 -5 5 -7 -8
leaf_value=-0.18433243297982022 0.08235955650730678 -0.09455806492454355 -0.030190126986636853 0.053478516018401416 -0.041731670677072515 0.13507840054436127 -0.16771907745956352
leaf_count=186 114 59 318 344 100 277 44
internal_value=0 -0.0909201 -0.369776 0.124641 0.228563 0.387672 -0.331983
internal_count=1442 907 504 403 535 377 158
shrinkage=0.2


Tree=50
num_leaves=8
num_cat=0
split_feature=12 11 12 4 4 13 11
split_gain=1.72926 2.3217 2.41597 1.2687 0.146748 0.172395 0.00353308
threshold=17.830000000000002 -7.9999999999999991 -5.9799999999999995 21.500000000000004 19.500000000000004 -3.4699999999999993 -3.6349999999999993
decision_type=2 2 2 2 2 2 2
left_child=1 3 -3 -1 6 -6 -2
right_child=4 2 -4 -5 5 -7 -8
leaf_value=-0.15135552881845693 0.24030124579107107 -0.024673492786510154 0.049260843719754741 0.11603655682702407 0.20499270097590427 -0.10421138424208481 0.204273574875766
leaf_count=213 14 575 581 13 20 12 14
internal_value=0 -0.0205881 0.0307401 -0.591216 1.03658 0.40818 1.18456
internal_count=1442 1382 1156 226 60 32 28
shrinkage=0.2


Tree=51
num_leaves=7
num_cat=0
split_feature=11 13 12 12 9 13
split_gain=1.6063 2.09567 2.29673 1.64251 0.0376033 0.0023971
threshold=26.210000000000004 -2.3549999999999995 -16.174999999999997 17.830000000000002 116.50000000000001 -3.4699999999999993
decision_type=2 2 2 2 2 2
left_child=1 3 -3 -1 5 -2
right_child=4 2 -4 -5 -6 -7
leaf_value=-0.065406383752437389 0.23238652642148977 -0.058037145813738769 0.038945660287211602 0.22857199078745027 0.15420736403943119 0.21039198083284849
leaf_count=380 22 205 773 36 13 13
internal_value=0 -0.0193297 0.0848759 -0.275898 1.03908 1.13513
internal_count=1442 1394 978 416 48 35
shrinkage=0.2


Tree=52
num_leaves=8
num_cat=0
split_feature=11 12 13 8 3 8 12
split_gain=1.54813 2.84143 3.21781 2.03478 1.94315 1.79283 1.67222
threshold=12.670000000000002 -9.9399999999999977 1.8250000000000002 347.50000000000006 30.500000000000004 420.00000000000006 -10.769999999999998
decision_type=2 2 2 2 2 2 2
left_child=1 2 -1 -3 6 -6 -2
right_child=4 3 -4 -5 5 -7 -8
leaf_value=-0.2481034439298927 0.049523312367238413 -0.026774630489695025 -0.036258659764327461 0.060610130717252457 -0.10984373878695552 0.063572353279709462 0.21600107423247705
leaf_count=142 67 501 187 246 41 55 203
internal_value=0 -0.081884 -0.462457 0.0451316 0.238119 -0.0897772 0.52929
internal_count=1442 1076 329 747 366 96 270
shrinkage=0.2


Tree=53
num_leaves=7
num_cat=1
split_feature=4 3 2 6 10 4
split_gain=1.48019 1.89995 1.85718 2.49407 1.64804 1.00206
threshold=14.500000000000002 13.500000000000002 0 124.50000000000001 1.0000000180025095e-35 13.500000000000002
decision_type=2 2 5 2 2 2
left_child=1 -1 4 -4 -2 -3
right_child=2 5 3 -5 -6 -7
leaf_value=0.15737819576157883 -0.17149419882418138 -0.06362601738990542 -0.0029321213739968996 0.084582955297420853 -0.025250025033572855 -0.2479705349479332
leaf_count=20 64 103 632 413 174 36
internal_value=0 -0.490465 0.0387915 0.116582 -0.206395 -0.751324
internal_count=1442 159 1283 1045 238 139
cat_boundaries=0 1
cat_threshold=134909956
shrinkage=0.2


Tree=54
num_leaves=6
num_cat=0
split_feature=9 13 5 11 1
split_gain=1.47831 1.99297 2.29002 2.05472 0.120035
threshold=253.50000000000003 5.2100000000000009 270.50000000000006 20.955000000000002 1.0000000180025095e-35
decision_type=2 2 2 2 2
left_child=1 3 -3 -1 -2
right_child=4 2 -4 -5 -6
leaf_value=-0.023554458042161525 -0.2593741946066675 0.014263871975490222 0.18313321550858935 0.10737514702461877 -0.11666612089404127
leaf_count=1095 17 163 41 114 12
internal_value=0 0.0171077 0.350222 -0.0617907 -1.1039
internal_count=1442 1413 204 1209 29
shrinkage=0.2


Tree=55
num_leaves=8
num_cat=0
split_feature=1 9 11 12 12 7 13
split_gain=1.40471 3.15657 1.92609 1.35794 1.35376 2.51445 2.05064
threshold=1.0000000180025095e-35 121.50000000000001 -7.9999999999999991 -11.924999999999999 2.6000000000000005 1.5000000000000002 -3.9599999999999995
decision_type=2 2 2 2 2 2 2
left_child=4 2 -2 -3 5 -1 -6
right_child=1 3 -4 -5 6 -7 -8
leaf_value=-0.0089470946372042018 -0.11002954149691227 -0.1348670668738482 0.089129123658475681 -0.0036826340629193526 -0.11412412302200699 -0.13433847131320117 0.11793475304540163
leaf_count=331 51 103 396 167 61 198 135
internal_value=0 0.135816 0.35702 -0.238627 -0.135112 -0.226452 0.250448
internal_count=1442 717 447 270 725 529 196
shrinkage=0.2


Tree=56
num_leaves=6
num_cat=0
split_feature=13 11 6 12 7
split_gain=1.39883 1.6146 3.47303 3.25472 1.06794
threshold=11.280000000000003 -1.2299999999999998 132.00000000000003 -5.8149999999999986 1.0000000180025095e-35
decision_type=2 2 2 2 2
left_child=1 2 -1 -3 -2
right_child=4 3 -4 -5 -6
leaf_value=-0.10229628273907476 0.27787138090014762 -0.02380776795399514 0.12972211604817019 0.077809300081491631 0.017784081320292851
leaf_count=383 13 490 63 479 14
internal_value=0 -0.0258853 -0.295415 0.0564044 0.731023
internal_count=1442 1415 446 969 27
shrinkage=0.2


Tree=57
num_leaves=8
num_cat=0
split_feature=13 3 5 10 13 4 5
split_gain=1.5741 2.8165 3.39988 1.88178 2.21594 2.17158 0.616874
threshold=-0.084999999999999992 35.000000000000007 251.00000000000003 2.5000000000000004 -3.9599999999999995 24.500000000000004 162.00000000000003
decision_type=2 2 2 2 2 2 2
left_child=3 2 -2 5 -5 -1 -3
right_child=1 6 -4 4 -6 -7 -8
leaf_value=-0.093681587070602201 -0.0090926047887077612 0.093217911883609131 0.11374216601678544 -0.05128586924906342 0.21729176820166718 0.017467214966954196 -0.21271868655060788
leaf_count=392 435 24 194 57 62 198 80
internal_value=0 0.134919 0.204214 -0.156789 0.416176 -0.25202 -0.883765
internal_count=1442 733 629 709 119 590 104
shrinkage=0.2


Tree=58
num_leaves=8
num_cat=0
split_feature=12 11 13 11 5 7 5
split_gain=1.20699 2.14641 1.97226 1.01491 0.933429 0.657188 0.444699
threshold=6.1800000000000006 -6.2349999999999985 -5.4799999999999995 -6.2349999999999985 176.50000000000003 1.0000000180025095e-35 330.50000000000006
decision_type=2 2 2 2 2 2 2
left_child=1 5 -3 4 -2 -1 -5
right_child=3 2 -4 6 -6 -7 -8
leaf_value=0.12473706233424067 0.11295832766737529 -0.083765358512185528 0.01531705870093183 0.19674410413340304 -0.064272599565312852 -0.17844757420255852 -0.0065833444971215658
leaf_count=15 31 111 825 204 28 209 19
internal_value=0 -0.0448566 0.000325164 0.368936 0.080621 -0.769613 0.814604
internal_count=1442 1160 936 282 59 224 223
shrinkage=0.2


Tree=59
num_leaves=8
num_cat=0
split_feature=11 12 13 4 12 13 8
split_gain=1.14136 1.92101 3.69607 1.87327 1.56164 2.58363 2.15341
threshold=15.415000000000001 -6.964999999999999 2.9950000000000006 27.500000000000004 -17.944999999999997 -5.4799999999999995 420.00000000000006
decision_type=2 2 2 2 2 2 2
left_child=1 2 -1 -3 6 -6 -2
right_child=4 3 -4 -5 5 -7 -8
leaf_value=-0.14223405401279732 -0.15591603620835179 0.0079997401161381546 0.017174359581040691 0.24672788111976063 -0.0041326020623827023 0.23053380434034287 0.080716059123248543
leaf_count=258 24 689 204 16 62 151 38
internal_value=0 -0.0610483 -0.283234 0.0862559 0.258855 0.566453 -0.10986
internal_count=1442 1167 462 705 275 213 62
shrinkage=0.2


Tree=60
num_leaves=7
num_cat=0
split_feature=11 12 11 10 9 13
split_gain=1.15607 1.55998 1.73877 1.54626 0.0490394 0.0009362
threshold=26.210000000000004 -17.944999999999997 11.470000000000001 1.5000000000000002 116.50000000000001 -3.4699999999999993
decision_type=2 2 2 2 2 2
left_child=1 3 -3 -1 5 -2
right_child=4 2 -4 -5 -6 -7
leaf_value=-0.1195296949991 0.22572404409242375 -0.0094065956500025034 0.073397526071925706 0.11565520662239509 0.13039752762242232 0.21027662755354776
leaf_count=160 22 925 292 17 13 13
internal_value=0 -0.0162283 0.0396293 -0.416038 0.984129 1.10982
internal_count=1442 1394 1217 177 48 35
shrinkage=0.2


Tree=61
num_leaves=8
num_cat=0
split_feature=13 12 11 6 11 12 13
split_gain=1.23123 1.37557 3.16969 1.88027 1.29451 1.81414 0.783813
threshold=-2.3549999999999995 -16.174999999999997 10.630000000000001 97.000000000000014 20.955000000000002 -5.8149999999999986 -8.7899999999999974
decision_type=2 2 2 2 2 2 2
left_child=4 3 -3 -2 5 -1 -6
right_child=1 2 -4 -5 6 -7 -8
leaf_value=-0.1563184547746439 -0.15376005165276699 0.012229725231875863 0.17925336410505069 0.016964963819101255 -0.096515976635046075 -0.018081696630822985 0.18226468028365039
leaf_count=108 106 616 168 106 12 273 53
internal_value=0 0.0857739 0.175703 -0.222633 -0.204861 -0.288632 0.543721
internal_count=1442 996 784 212 446 381 65
shrinkage=0.2


Tree=62
num_leaves=8
num_cat=1
split_feature=2 12 11 6 9 7 5
split_gain=1.08837 1.22024 2.1189 1.19847 1.08867 0.878516 0.205983
threshold=0 8.4850000000000012 -1.2299999999999998 141.50000000000003 102.50000000000001 2.5000000000000004 302.50000000000006
decision_type=5 2 2 2 2 2 2
left_child=3 2 -2 4 -1 -3 -5
right_child=1 5 -4 6 -6 -7 -8
leaf_value=-0.036311965965229592 -0.10535862886479533 0.18632324768598169 -0.0035812341682358115 0.22431277551098852 0.093033489108467801 -0.0011336501544262764 0.033625653068767969
leaf_count=84 319 150 679 67 108 23 12
internal_value=0 -0.0646455 -0.116938 0.188259 0.196613 0.456093 1.00943
internal_count=1442 1171 998 271 192 173 79
cat_boundaries=0 1
cat_threshold=1073760064
shrinkage=0.2


Tree=63
num_leaves=8
num_cat=0
split_feature=13 12 7 12 11 5 6
split_gain=1.23457 1.8478 1.65005 1.87253 1.68299 1.47697 0.284226
threshold=5.2100000000000009 -20.584999999999997 1.5000000000000002 1.0000000180025095e-35 20.955000000000002 270.50000000000006 102.00000000000001
decision_type=2 2 2 2 2 2 2
left_child=2 6 4 -4 -1 -3 -2
right_child=1 5 3 -5 -6 -7 -8
leaf_value=-0.0027951051145388823 -0.22542486658132452 0.031973001305523656 -0.11865343486641143 0.0077286071302721431 0.13957698150442027 0.18102403659787805 -0.057267648975805455
leaf_count=669 22 143 286 165 107 34 16
internal_value=0 0.269127 -0.066731 -0.305305 0.0605203 0.40337 -0.735275
internal_count=1442 215 1227 451 776 177 38
shrinkage=0.2


Tree=64
num_leaves=8
num_cat=0
split_feature=12 11 11 13 12 6 7
split_gain=1.07182 1.71774 1.57696 2.78918 1.55909 1.55021 0.782949
threshold=-13.279999999999999 7.7900000000000009 3.0900000000000003 1.8250000000000002 -2.3099999999999996 97.000000000000014 1.0000000180025095e-35
decision_type=2 2 2 2 2 2 2
left_child=1 6 4 -4 -2 -3 -1
right_child=2 5 3 -5 -6 -7 -8
leaf_value=-0.0042068901295067417 -0.099881367813450195 -0.11059658406594537 0.01739094542894452 0.1852538798507089 0.010383363160841635 0.035411411613771822 -0.2371772669472717
leaf_count=23 198 63 457 112 336 108 145
internal_value=0 -0.223589 0.0717677 0.243472 -0.108425 -0.0656316 -0.895326
internal_count=1442 339 1103 569 534 171 168
shrinkage=0.2


Tree=65
num_leaves=8
num_cat=0
split_feature=13 12 11 11 12 8 1
split_gain=1.13663 1.39419 3.68612 2.34285 1.28907 1.22555 0.281497
threshold=5.2100000000000009 -5.8149999999999986 8.5700000000000021 0.73000000000000009 -20.584999999999997 448.00000000000006 1.0000000180025095e-35
decision_type=2 2 2 2 2 2 2
left_child=1 2 -1 -3 6 -6 -2
right_child=4 3 -4 -5 5 -7 -8
leaf_value=-0.16540678222910224 -0.050028570327829494 -0.044123173254966092 0.0018538586578546149 0.072921555199007379 0.040113329207257714 0.19663760445166939 -0.23196801040783677
leaf_count=264 20 282 265 416 148 29 18
internal_value=0 -0.0646968 -0.232366 0.0917761 0.266425 0.376227 -0.64511
internal_count=1442 1227 529 698 215 177 38
shrinkage=0.2


Tree=66
num_leaves=8
num_cat=0
split_feature=13 9 5 9 8 12 12
split_gain=1.27716 1.07954 1.98275 1.64815 1.05647 2.87609 1.26352
threshold=-3.4699999999999993 110.50000000000001 251.00000000000003 102.50000000000001 291.00000000000006 1.4350000000000003 8.4850000000000012
decision_type=2 2 2 2 2 2 2
left_child=4 3 -3 -2 6 -6 -1
right_child=1 2 -4 -5 5 -7 -8
leaf_value=-0.18127629524789857 0.026285913857558414 -0.064435293198150931 0.046172261414851597 0.18265011314881441 -0.059622258970474441 0.21719331993724419 0.075476700162041249
leaf_count=89 464 355 201 67 154 45 67
internal_value=0 0.0797425 -0.0595751 0.23849 -0.245692 -0.0799279 -0.643626
internal_count=1442 1087 556 531 355 199 156
shrinkage=0.2


Tree=67
num_leaves=8
num_cat=0
split_feature=10 8 12 12 11 11 7
split_gain=0.970924 1.64706 2.20217 1.40817 2.8443 2.18375 1.18518
threshold=1.5000000000000002 291.00000000000006 -5.8149999999999986 -2.3099999999999996 6.6450000000000005 -3.6349999999999993 1.0000000180025095e-35
decision_type=2 2 2 2 2 2 2
left_child=1 6 -3 4 -2 -5 -1
right_child=3 2 -4 5 -6 -7 -8
leaf_value=0.12766415308655849 -0.13376541073694301 -0.031046816719641747 0.082851637814274376 -0.010193095401197108 0.069696952010419352 0.16385304725713146 -0.13402927412038332
leaf_count=44 87 511 182 100 105 252 161
internal_value=0 -0.0915045 -0.000526127 0.16539 -0.0869633 0.410118 -0.528066
internal_count=1442 898 693 544 192 352 205
shrinkage=0.2


Tree=68
num_leaves=8
num_cat=0
split_feature=13 3 11 12 11 9 5
split_gain=1.10323 1.5749 1.93277 1.12465 2.23567 1.42976 0.5108
threshold=-0.084999999999999992 35.000000000000007 10.630000000000001 2.6000000000000005 7.7900000000000009 105.50000000000001 162.00000000000003
decision_type=2 2 2 2 2 2 2
left_child=3 2 -2 4 -1 -5 -3
right_child=1 6 -4 5 -6 -7 -8
leaf_value=-0.13939570972509932 0.010072841749997008 0.09881807585468172 0.13233008300766833 -0.041072921251019578 -0.005585882767908024 0.14385547193907219 -0.20315098713036159
leaf_count=208 481 24 148 175 241 85 80
internal_value=0 0.122697 0.173342 -0.142115 -0.249191 0.216287 -0.792825
internal_count=1442 733 629 709 449 260 104
shrinkage=0.2


Tree=69
num_leaves=8
num_cat=0
split_feature=12 11 13 7 11 13 8
split_gain=1.0098 1.51001 2.23677 1.42722 1.19065 1.41151 1.35813
threshold=-11.924999999999999 15.415000000000001 -2.3549999999999995 1.5000000000000002 12.670000000000002 -5.4799999999999995 420.00000000000006
decision_type=2 2 2 2 2 2 2
left_child=4 2 -2 -3 6 -6 -1
right_child=1 3 -4 -5 5 -7 -8
leaf_value=-0.22497704688345443 -0.061196995356757322 0.24211258724722753 0.038787418930337172 -0.091265207092135509 -0.17071821435958925 0.03381254542338983 -0.043398354808530916
leaf_count=122 282 153 591 16 15 118 145
internal_value=0 0.0822846 0.0342888 0.798382 -0.19601 0.019007 -0.494676
internal_count=1442 1042 873 169 400 133 267
shrinkage=0.2


Tree=70
num_leaves=6
num_cat=1
split_feature=13 2 6 3 7
split_gain=0.970293 1.07967 1.50878 1.28638 0.806289
threshold=11.280000000000003 0 124.50000000000001 16.500000000000004 1.0000000180025095e-35
decision_type=2 5 2 2 2
left_child=1 3 -3 -1 -2
right_child=4 2 -4 -5 -6
leaf_value=0.15982264811897298 0.26530473550890704 -0.013049966607867497 0.060906071231386374 -0.10481596928841888 0.01638953756412739
leaf_count=42 13 731 421 221 14
internal_value=0 -0.0238174 0.0511269 -0.216521 0.66965
internal_count=1442 1415 1152 263 27
cat_boundaries=0 1
cat_threshold=692484
shrinkage=0.2


Tree=71
num_leaves=8
num_cat=0
split_feature=12 11 12 6 4 13 13
split_gain=0.90947 1.48226 1.11787 0.782375 0.0747399 0.0938959 0.000702278
threshold=17.830000000000002 -7.9999999999999991 8.4850000000000012 67.000000000000014 19.500000000000004 -3.4699999999999993 -2.3549999999999995
decision_type=2 2 2 2 2 2 2
left_child=1 3 -3 -1 6 -6 -2
right_child=4 2 -4 -5 5 -7 -8
leaf_value=-0.23726729464130325 0.22623224442452977 0.0022784928929916902 0.20893736535870061 -0.058785528658647557 0.20311698555396984 -0.10719099734230145 0.21387048309223178
leaf_count=79 16 1018 138 147 20 12 12
internal_value=0 -0.0152707 0.0313798 -0.544289 0.978903 0.35571 1.10724
internal_count=1442 1382 1156 226 60 32 28
shrinkage=0.2


Tree=72
num_leaves=6
num_cat=0
split_feature=9 13 4 5 1
split_gain=0.885949 1.14936 1.21263 1.02629 0.0672789
threshold=253.50000000000003 5.2100000000000009 16.500000000000004 270.50000000000006 1.0000000180025095e-35
decision_type=2 2 2 2 2
left_child=1 2 -1 -3 -2
right_child=4 3 -4 -5 -6
leaf_value=-0.09654099747359228 -0.24527939888600536 0.019767916393497991 0.0010104523010681283 0.14955998875296966 -0.11059482559827161
leaf_count=208 17 163 1001 41 12
internal_value=0 0.0139945 -0.053605 0.299305 -1.0558
internal_count=1442 1413 1209 204 29
shrinkage=0.2


Tree=73
num_leaves=8
num_cat=0
split_feature=12 11 5 5 4 7 13
split_gain=0.911023 1.19489 1.21155 1.17352 2.21579 1.43436 0.720431
threshold=-13.279999999999999 20.955000000000002 316.00000000000006 330.50000000000006 21.500000000000004 2.5000000000000004 -1.5649999999999997
decision_type=2 2 2 2 2 2 2
left_child=1 6 -3 5 -5 -2 -1
right_child=3 2 -4 4 -6 -7 -8
leaf_value=-0.22696424757812089 0.017588675215668651 0.25080090769434887 -0.01677532409431198 -0.22369684618863417 0.13335643628796096 -0.085453237894705519 -0.058171496893340516
leaf_count=50 822 14 26 14 110 157 249
internal_value=0 -0.220326 0.313669 0.0687898 0.456136 0.00261901 -0.376762
internal_count=1442 339 40 1103 124 979 299
shrinkage=0.2


Tree=74
num_leaves=7
num_cat=0
split_feature=13 12 11 11 8 12
split_gain=0.879394 1.33789 2.44095 1.65388 1.28255 1.16922
threshold=-8.7899999999999974 -0.62999999999999989 2.0650000000000004 7.7900000000000009 312.50000000000006 8.4850000000000012
decision_type=2 2 2 2 2 2
left_child=4 3 -3 -2 5 -1
right_child=1 2 -4 -5 -6 -7
leaf_value=-0.28688784835401526 -0.056163929835467724 0.01830906990707137 0.22372370908953007 0.025202768515314802 0.018054460061206947 0.10067514756213028
leaf_count=24 494 255 244 384 23 18
internal_value=0 0.03276 0.288174 -0.0622335 -0.451973 -1.04105
internal_count=1442 1377 499 878 65 42
shrinkage=0.2


Tree=75
num_leaves=8
num_cat=0
split_feature=12 8 4 11 11 13 3
split_gain=0.811881 1.36515 1.91699 1.84201 1.18751 1.89996 1.55321
threshold=-8.9599999999999991 412.50000000000006 27.500000000000004 10.630000000000001 -3.6349999999999993 -0.40499999999999997 25.000000000000004
decision_type=2 2 2 2 2 2 2
left_child=1 3 -3 -1 6 -6 -2
right_child=4 2 -4 -5 5 -7 -8
leaf_value=-0.19351413595811714 -0.010898682605514333 0.049348856436819348 -0.14938122878101187 -0.018033955412228762 -0.0048675964402175517 0.10522024945861264 -0.25761831958498055
leaf_count=162 176 242 33 95 390 271 73
internal_value=0 -0.14354 0.0688274 -0.417849 0.0973285 0.20654 -0.215701
internal_count=1442 532 275 257 910 661 249
shrinkage=0.2


Tree=76
num_leaves=8
num_cat=0
split_feature=13 6 11 9 4 7 12
split_gain=0.924391 1.48386 1.35515 1.16744 1.11621 1.81372 1.613
threshold=6.0100000000000007 113.00000000000001 7.7900000000000009 175.50000000000003 16.500000000000004 2.5000000000000004 -6.964999999999999
decision_type=2 2 2 2 2 2 2
left_child=4 3 -3 -2 5 -1 -6
right_child=1 2 -4 -5 6 -7 -8
leaf_value=-0.031017317949949854 0.14626111119902616 -0.13485142328747229 0.22111127191515428 -0.10789798806262599 -0.039421675744818883 -0.29050993831098482 0.038680857834357797
leaf_count=180 86 43 17 28 431 43 614
internal_value=0 0.294303 -0.324188 0.561917 -0.0553165 -0.458419 0.00196742
internal_count=1442 174 60 114 1268 223 1045
shrinkage=0.2


Tree=77
num_leaves=7
num_cat=1
split_feature=6 12 2 13 9 4
split_gain=0.800197 0.784347 0.848878 0.503399 0.0792159 0.0697056
threshold=217.00000000000003 17.830000000000002 0 -6.7049999999999992 110.50000000000001 19.500000000000004
decision_type=2 2 5 2 2 2
left_child=1 2 -1 -2 -5 -3
right_child=3 5 -4 4 -6 -7
leaf_value=0.030823817312324076 -0.097949204348912591 0.21884224052955373 -0.017907410610211217 0.24577108917550225 0.1119351638178715 0.056762571868732986
leaf_count=243 14 26 1073 44 13 29
internal_value=0 -0.0189991 -0.0334171 0.776504 1.0837 0.965969
internal_count=1442 1371 1316 71 57 55
cat_boundaries=0 1
cat_threshold=1744847936
shrinkage=0.2


Tree=78
num_leaves=7
num_cat=0
split_feature=11 12 13 8 9 13
split_gain=0.754746 1.03168 1.23291 1.04544 0.0292917 0.000381551
threshold=26.210000000000004 -17.944999999999997 -3.4699999999999993 420.00000000000006 116.50000000000001 -3.4699999999999993
decision_type=2 2 2 2 2 2
left_child=1 3 -3 -1 5 -2
right_child=4 2 -4 -5 -6 -7
leaf_value=-0.1864536227144894 0.21903715821076122 -0.045729677365736167 0.026474583659208517 -0.018037744201802357 0.12864144237033279 0.20657482900016932
leaf_count=54 22 315 902 123 13 13
internal_value=0 -0.0117135 0.037846 -0.387491 0.969123 1.08206
internal_count=1442 1394 1217 177 48 35
shrinkage=0.2


Tree=79
num_leaves=8
num_cat=0
split_feature=11 12 13 3 6 13 4
split_gain=0.696414 1.35254 1.09421 0.727374 0.429566 0.348403 0.238584
threshold=17.025000000000002 -18.304999999999996 2.9950000000000006 28.500000000000004 124.50000000000001 5.2100000000000009 24.500000000000004
decision_type=2 2 2 2 2 2 2
left_child=1 5 -3 6 -5 -1 -2
right_child=3 2 -4 4 -6 -7 -8
leaf_value=-0.22569424397222948 0.067923463894902406 -0.022322449047628503 0.043651998477587613 -0.034210471684143637 0.077075992430691728 -0.076716830269105196 0.20889342997295604
leaf_count=83 56 797 301 33 41 46 85
internal_value=0 -0.0428452 -0.00353448 0.282208 0.0937683 -0.757277 0.787692
internal_count=1442 1227 1098 215 74 129 141
shrinkage=0.2


Tree=80
num_leaves=8
num_cat=0
split_feature=11 12 13 12 13 13 13
split_gain=0.658904 1.39156 2.04997 1.38329 1.36916 1.26549 1.06464
threshold=3.0900000000000003 -5.8149999999999986 -0.73999999999999988 -2.3099999999999996 2.9950000000000006 3.7650000000000001 5.2100000000000009
decision_type=2 2 2 2 2 2 2
left_child=3 4 -3 6 -2 -5 -1
right_child=1 2 -4 5 -6 -7 -8
leaf_value=-0.200543155802028 -0.037593685252347908 0.032521163613412285 0.25569172169050691 -0.026796274763696382 0.06706104416182182 0.10880279997950558 -0.037310539427706318
leaf_count=228 301 227 141 263 115 73 94
internal_value=0 0.0881184 0.41485 -0.136155 -0.0377355 0.0347682 -0.5148
internal_count=1442 784 368 658 416 336 322
shrinkage=0.2


Tree=81
num_leaves=8
num_cat=0
split_feature=11 9 12 13 7 3 13
split_gain=0.644398 1.43161 0.894849 0.922819 0.869502 0.817129 0.768158
threshold=15.415000000000001 98.500000000000014 -13.279999999999999 -8.7899999999999974 1.5000000000000002 35.000000000000007 3.7650000000000001
decision_type=2 2 2 2 2 2 2
left_child=2 4 6 -4 -2 -3 -1
right_child=1 5 3 -5 -6 -7 -8
leaf_value=-0.17051679647975249 0.18913209838576767 0.030356617360812427 -0.1149202531913901 0.0097075470778579965 -0.055184956231806859 -0.13899217405598432 -0.025093015376410295
leaf_count=143 121 115 43 877 15 24 104
internal_value=0 0.236568 -0.0491392 0.00739985 0.714145 -0.0760927 -0.40323
internal_count=1442 275 1167 920 136 139 247
shrinkage=0.2


Tree=82
num_leaves=8
num_cat=1
split_feature=5 4 4 11 0 9 10
split_gain=0.653608 1.42285 1.68598 1.22076 1.18389 0.990969 0.168595
threshold=330.50000000000006 27.500000000000004 21.500000000000004 20.955000000000002 0 68.500000000000014 1.5000000000000002
decision_type=2 2 2 2 5 2 2
left_child=3 2 -2 4 -1 -3 -5
right_child=1 5 -4 6 -6 -7 -8
leaf_value=0.034785583013838432 -0.15716794294582467 0.22319097270908911 0.14568317204652284 0.24166109080848167 -0.028072644610997177 -0.10589439572575204 0.047061618027732621
leaf_count=215 22 14 104 37 976 48 26
internal_value=0 0.241595 0.51968 -0.0497514 -0.0759195 -0.307329 1.00387
internal_count=1442 188 126 1254 1191 62 63
cat_boundaries=0 1
cat_threshold=145620992
shrinkage=0.2


Tree=83
num_leaves=8
num_cat=0
split_feature=12 11 12 6 4 13 13
split_gain=0.645769 0.936151 0.935004 0.730396 0.0648604 0.0815543 0.000308784
threshold=17.830000000000002 -7.9999999999999991 -0.62999999999999989 67.000000000000014 19.500000000000004 -3.4699999999999993 -2.3549999999999995
decision_type=2 2 2 2 2 2 2
left_child=1 3 -3 -1 6 -6 -2
right_child=4 2 -4 -5 5 -7 -8
leaf_value=-0.23257610956236163 0.21962043620708016 -0.0093626913368272755 0.057195232800007094 -0.042476644049095916 0.20262135860181157 -0.11408413681269412 0.21020481057780566
leaf_count=79 16 771 385 147 20 12 12
internal_value=0 -0.010436 0.0286165 -0.469083 0.939654 0.304303 1.0804
internal_count=1442 1382 1156 226 60 32 28
shrinkage=0.2


Tree=84
num_leaves=7
num_cat=0
split_feature=12 11 13 8 11 6
split_gain=0.675623 1.31916 1.44376 0.90735 0.538597 0.119404
threshold=8.4850000000000012 -3.6349999999999993 3.7650000000000001 291.00000000000006 -11.565 173.50000000000003
decision_type=2 2 2 2 2 2
left_child=1 2 -1 -3 -2 -6
right_child=4 3 -4 -5 5 -7
leaf_value=-0.21400961172884203 0.016627643260559943 -0.070913290768661971 -0.010831198370226027 0.017224331215145102 0.20238280174179424 0.04650428742283455
leaf_count=179 23 148 124 771 147 50
internal_value=0 -0.0277857 -0.477618 0.0319519 0.434645 0.888406
internal_count=1442 1222 303 919 220 197
shrinkage=0.2


Tree=85
num_leaves=8
num_cat=0
split_feature=12 11 13 3 6 7 13
split_gain=0.593652 1.31655 1.65915 1.2858 0.894952 1.18872 0.936465
threshold=-0.62999999999999989 7.7900000000000009 -2.3549999999999995 22.500000000000004 67.000000000000014 1.5000000000000002 -8.7899999999999974
decision_type=2 2 2 2 2 2 2
left_child=1 2 -1 -3 5 -2 -6
right_child=4 3 -4 -5 6 -7 -8
leaf_value=-0.24357775346720856 0.087508388132776851 0.13998225409168275 -0.033721863180137653 -1.5303047211604982e-05 -0.087141283482619014 -0.19080355764551077 0.080597863901475983
leaf_count=81 31 100 423 303 35 34 435
internal_value=0 -0.0642733 -0.273779 0.102291 0.175825 -0.365173 0.292616
internal_count=1442 907 504 403 535 65 470
shrinkage=0.2


Tree=86
num_leaves=8
num_cat=0
split_feature=13 10 11 11 3 8 9
split_gain=0.540066 0.902055 1.667 0.812973 0.694286 1.07171 0.635904
threshold=-5.4799999999999995 1.5000000000000002 6.6450000000000005 10.630000000000001 30.500000000000004 291.00000000000006 102.50000000000001
decision_type=2 2 2 2 2 2 2
left_child=4 3 -3 -2 5 -1 -6
right_child=1 2 -4 -5 6 -7 -8
leaf_value=-0.11000277764825837 -0.037491944254121459 0.0052182024133547132 0.15060863410698336 0.033639725577144133 -0.04085450738062843 0.067599170810173304 -0.25351379765911425
leaf_count=90 557 276 185 228 17 63 26
internal_value=0 0.0442914 0.241015 -0.0616903 -0.241944 -0.0509703 -0.709442
internal_count=1442 1246 461 785 196 153 43
shrinkage=0.2


Tree=87
num_leaves=8
num_cat=0
split_feature=12 11 13 11 6 12 9
split_gain=0.673372 0.880687 0.846524 0.765048 1.60544 1.14059 0.71465
threshold=-16.174999999999997 19.290000000000003 5.2100000000000009 -1.2299999999999998 132.00000000000003 -5.8149999999999986 143.50000000000003
decision_type=2 2 2 2 2 2 2
left_child=1 2 -1 4 -2 -5 -3
right_child=3 6 -4 5 -6 -7 -8
leaf_value=-0.18169323916586971 -0.069462708710161011 0.090446910336017844 -0.023481146793045547 -0.0063779881822341568 0.11804884429276248 0.072239300544233512 -0.11265651604758409
leaf_count=145 343 32 63 307 57 482 13
internal_value=0 -0.25177 -0.500638 0.053359 -0.164439 0.13753 0.152721
internal_count=1442 253 208 1189 400 789 45
shrinkage=0.2


Tree=88
num_leaves=8
num_cat=0
split_feature=13 6 6 12 11 7 3
split_gain=0.591959 1.06815 0.971956 1.0322 0.936937 0.868425 0.836742
threshold=6.0100000000000007 113.00000000000001 107.00000000000001 -22.709999999999997 7.7900000000000009 2.5000000000000004 35.000000000000007
decision_type=2 2 2 2 2 2 2
left_child=2 6 5 -4 -3 -1 -2
right_child=1 4 3 -5 -6 -7 -8
leaf_value=-0.027369293488185165 0.11603230920130887 -0.11864286389379496 -0.1877835588039673 0.027230964007580096 0.21663077469354222 -0.16029078057706522 -0.21101420896371642
leaf_count=488 89 43 27 634 17 119 25
internal_value=0 0.247961 -0.0480314 0.0919563 -0.312523 -0.214526 0.48432
internal_count=1442 174 1268 661 60 607 114
shrinkage=0.2


Tree=89
num_leaves=8
num_cat=0
split_feature=12 11 13 11 10 5 5
split_gain=0.580324 1.21377 0.827203 0.501438 0.460666 0.197965 0.0582832
threshold=6.1800000000000006 -7.9999999999999991 -0.084999999999999992 -6.2349999999999985 2.5000000000000004 302.50000000000006 280.50000000000006
decision_type=2 2 2 2 2 2 2
left_child=1 6 -3 4 -2 -5 -1
right_child=3 2 -4 5 -6 -7 -8
leaf_value=-0.2105968148187313 -0.045770634965822871 -0.03085925487284702 0.024651208983646439 0.20434278490442292 0.11167824572765001 0.036963537687294705 -0.10285408285591224
leaf_count=179 33 466 502 189 26 34 13
internal_value=0 -0.0351199 -0.00559642 0.339972 0.106277 0.812017 -0.957866
internal_count=1442 1160 968 282 59 223 192
shrinkage=0.2


Tree=90
num_leaves=8
num_cat=1
split_feature=2 8 12 3 12 4 6
split_gain=0.523045 1.80135 1.13258 1.05731 0.889111 1.43167 0.857069
threshold=0 347.50000000000006 1.0000000180025095e-35 35.000000000000007 -6.964999999999999 16.500000000000004 217.00000000000003
decision_type=5 2 2 2 2 2 2
left_child=1 2 -1 -3 6 -6 -2
right_child=4 3 -4 -5 5 -7 -8
leaf_value=-0.16154999922809701 -0.052669637012743957 0.15258366757852682 0.054620517779829403 -0.21245731624918629 -0.089769525321911459 0.041835071323028772 0.20246771801377106
leaf_count=48 497 101 102 21 141 519 13
internal_value=0 0.138651 -0.235967 0.651651 -0.0551414 0.0752536 -0.22644
internal_count=1442 272 150 122 1170 660 510
cat_boundaries=0 1
cat_threshold=1610630240
shrinkage=0.2


Tree=91
num_leaves=8
num_cat=0
split_feature=13 11 12 12 8 12 3
split_gain=0.561077 0.761137 1.91195 1.16177 0.521562 1.5899 0.360027
threshold=-5.4799999999999995 12.670000000000002 -17.944999999999997 -9.9399999999999977 291.00000000000006 2.6000000000000005 16.500000000000004
decision_type=2 2 2 2 2 2 2
left_child=4 3 -3 -2 6 -6 -1
right_child=1 2 -4 -5 5 -7 -8
leaf_value=0.030752167903854905 -0.069514686392393624 -0.025531174818058302 0.16375698594275631 0.017495616838019718 -0.058673151478240808 0.27500620122783309 -0.15906106665053732
leaf_count=49 316 78 211 641 74 25 48
internal_value=0 0.0456799 0.310012 -0.0253425 -0.255685 -0.0565759 -0.615087
internal_count=1442 1246 289 957 196 99 97
shrinkage=0.2


Tree=92
num_leaves=6
num_cat=0
split_feature=13 11 6 12 7
split_gain=0.541829 0.765214 1.34678 1.22229 0.5773
threshold=11.280000000000003 -1.2299999999999998 132.00000000000003 -5.8149999999999986 1.0000000180025095e-35
decision_type=2 2 2 2 2
left_child=1 2 -1 -3 -2
right_child=4 3 -4 -5 -6
leaf_value=-0.088350127064482281 0.22802716040238524 -0.0172540094985832 0.093508042611764 0.061076270787545267 -0.0065757459236730599
leaf_count=383 13 490 63 479 14
internal_value=0 -0.0202541 -0.260997 0.0497983 0.558344
internal_count=1442 1415 446 969 27
shrinkage=0.2


Tree=93
num_leaves=8
num_cat=0
split_feature=13 11 12 11 12 9 9
split_gain=0.615167 0.830074 1.046 0.569155 1.69683 1.37618 0.322384
threshold=-3.4699999999999993 20.955000000000002 -10.769999999999998 5.3750000000000009 -5.8149999999999986 116.50000000000001 105.50000000000001
decision_type=2 2 2 2 2 2 2
left_child=1 2 -1 5 -5 -2 -3
right_child=3 6 -4 4 -6 -7 -8
leaf_value=-0.24395144049975809 0.044153256397717729 0.21442735809014513 -0.036837922943379155 0.018709593922073314 0.23210260412521069 -0.063700084129994297 0.0039734836921407508
leaf_count=43 306 37 251 295 171 315 24
internal_value=0 -0.204314 -0.297798 0.0648907 0.200489 -0.0534709 0.591345
internal_count=1442 355 294 1087 466 621 61
shrinkage=0.2


end of trees

feature importances:
OffenseEP=145
DefenseEP=123
Sp_TmsEP=121
Opp=40
OFFRushY=35
DEFRushY=32
OFF1stD=26
TODEF=25
OFFPassY=24
TOOFF=24
DEFTotYd=24
Home=7
Opp_Name=7
Team=1

parameters:
[boosting: gbdt]
[objective: binary]
[metric: binary,binary_logloss]
[tree_learner: serial]
[device_type: cpu]
[data: ]
[valid: ]
[num_iterations: 100]
[learning_rate: 0.2]
[num_leaves: 12]
[num_threads: -1]
[max_depth: 3]
[min_data_in_leaf: 12]
[min_sum_hessian_in_leaf: 0.001]
[bagging_fraction: 1]
[bagging_freq: 0]
[bagging_seed: 28693]
[feature_fraction: 1]
[feature_fraction_seed: 24449]
[early_stopping_round: 0]
[max_delta_step: 0]
[lambda_l1: 0]
[lambda_l2: 0]
[min_gain_to_split: 0]
[drop_rate: 0.1]
[max_drop: 50]
[skip_drop: 0.5]
[xgboost_dart_mode: 0]
[uniform_drop: 0]
[drop_seed: 12255]
[top_rate: 0.2]
[other_rate: 0.1]
[min_data_per_group: 100]
[max_cat_threshold: 32]
[cat_l2: 10]
[cat_smooth: 10]
[max_cat_to_onehot: 4]
[top_k: 20]
[monotone_constraints: ]
[feature_contri: ]
[forcedsplits_filename: ]
[refit_decay_rate: 0.9]
[verbosity: -1]
[max_bin: 255]
[min_data_in_bin: 3]
[bin_construct_sample_cnt: 75]
[histogram_pool_size: -1]
[data_random_seed: 54]
[output_model: LightGBM_model.txt]
[snapshot_freq: -1]
[input_model: ]
[output_result: LightGBM_predict_result.txt]
[initscore_filename: ]
[valid_data_initscores: ]
[pre_partition: 0]
[enable_bundle: 1]
[max_conflict_rate: 0]
[is_enable_sparse: 1]
[sparse_threshold: 0.8]
[use_missing: 1]
[zero_as_missing: 0]
[two_round: 0]
[save_binary: 0]
[enable_load_from_binary_file: 1]
[header: 0]
[label_column: ]
[weight_column: ]
[group_column: ]
[ignore_column: ]
[categorical_feature: ]
[predict_raw_score: 0]
[predict_leaf_index: 0]
[predict_contrib: 0]
[num_iteration_predict: -1]
[pred_early_stop: 0]
[pred_early_stop_freq: 10]
[pred_early_stop_margin: 10]
[convert_model_language: ]
[convert_model: gbdt_prediction.cpp]
[num_class: 1]
[is_unbalance: 0]
[scale_pos_weight: 1]
[sigmoid: 1]
[boost_from_average: 1]
[reg_sqrt: 0]
[alpha: 0.9]
[fair_c: 1]
[poisson_max_delta_step: 0.7]
[tweedie_variance_power: 1.5]
[max_position: 20]
[label_gain: ]
[metric_freq: 1]
[is_provide_training_metric: 0]
[eval_at: ]
[num_machines: 1]
[local_listen_port: 12400]
[time_out: 120]
[machine_list_filename: ]
[machines: ]
[gpu_platform_id: -1]
[gpu_device_id: -1]
[gpu_use_dp: 0]

end of parameters

pandas_categorical:[["atl", "buf", "car", "chi", "cin", "cle", "clt", "crd", "dal", "den", "det", "gnb", "htx", "jax", "kan", "mia", "min", "nor", "nwe", "nyg", "nyj", "oti", "phi", "pit", "rai", "ram", "rav", "sdg", "sea", "sfo", "tam", "was"], ["Arizona Cardinals", "Atlanta Falcons", "Baltimore Ravens", "Buffalo Bills", "Carolina Panthers", "Chicago Bears", "Cincinnati Bengals", "Cleveland Browns", "Dallas Cowboys", "Denver Broncos", "Detroit Lions", "Green Bay Packers", "Houston Texans", "Indianapolis Colts", "Jacksonville Jaguars", "Kansas City Chiefs", "Las Vegas Raiders", "Los Angeles Chargers", "Los Angeles Rams", "Miami Dolphins", "Minnesota Vikings", "New England Patriots", "New Orleans Saints", "New York Giants", "New York Jets", "Oakland Raiders", "Philadelphia Eagles", "Pittsburgh Steelers", "San Francisco 49ers", "Seattle Seahawks", "Tampa Bay Buccaneers", "Tennessee Titans", "Washington Football Team", "Washington Redskins"]]
